{
  "type": "RNN",
  "options": {
    "inputSize": 6,
    "inputRange": 6,
    "hiddenLayers": [
      20,
      20
    ],
    "outputSize": 6,
    "learningRate": 0.01,
    "decayRate": 0.999,
    "smoothEps": 1e-8,
    "regc": 0.000001,
    "clipval": 5,
    "maxPredictionLength": 100,
    "dataFormatter": null
  },
  "input": {
    "rows": 7,
    "columns": 6,
    "weights": {
      "0": 0.06849828362464905,
      "1": 0.03382575511932373,
      "2": 0.03403318673372269,
      "3": 0.0640324205160141,
      "4": -0.06888385117053986,
      "5": -0.02429306134581566,
      "6": -0.06329508125782013,
      "7": -0.057735659182071686,
      "8": -0.02841091714799404,
      "9": 0.009760691784322262,
      "10": 0.006319080479443073,
      "11": -0.06434692442417145,
      "12": -0.05502329394221306,
      "13": 0.06673102080821991,
      "14": -0.06046990677714348,
      "15": -0.051239870488643646,
      "16": -0.07680456340312958,
      "17": -0.0444084107875824,
      "18": 0.008270027115941048,
      "19": 0.020109359174966812,
      "20": 0.030856678262352943,
      "21": -0.004069407470524311,
      "22": -0.008416363969445229,
      "23": 0.04224104434251785,
      "24": -0.03859739005565643,
      "25": 0.03373304754495621,
      "26": 0.035672686994075775,
      "27": 0.043156903237104416,
      "28": -0.017797276377677917,
      "29": -0.030779194086790085,
      "30": 0.0076881530694663525,
      "31": -0.05281984433531761,
      "32": 0.02108726277947426,
      "33": 0.00023197232803795487,
      "34": 0.07847224920988083,
      "35": 0.04276316985487938,
      "36": 0.06797028332948685,
      "37": 0.0034205790143460035,
      "38": 0.022719383239746094,
      "39": -0.02923712134361267,
      "40": -0.06285111606121063,
      "41": 0.04266403242945671
    }
  },
  "hiddenLayers": [
    {
      "weight": {
        "rows": 20,
        "columns": 6,
        "weights": {
          "0": 0.062438204884529114,
          "1": 0.0635075643658638,
          "2": -0.05475510284304619,
          "3": 0.06493283808231354,
          "4": 0.0018960614688694477,
          "5": 0.05145673453807831,
          "6": 0.07066899538040161,
          "7": -0.016013704240322113,
          "8": -0.043826937675476074,
          "9": -0.04346613958477974,
          "10": 0.04557529091835022,
          "11": 0.010166492313146591,
          "12": -0.05624531954526901,
          "13": 0.000869401206728071,
          "14": 0.02782042883336544,
          "15": 0.008643634617328644,
          "16": -0.0752636194229126,
          "17": 0.07490614801645279,
          "18": -0.015582414343953133,
          "19": -0.00688274297863245,
          "20": -0.01755351386964321,
          "21": 0.028200173750519753,
          "22": 0.03865981474518776,
          "23": 0.03648421913385391,
          "24": 0.004790179897099733,
          "25": -0.060996707528829575,
          "26": 0.008913040161132812,
          "27": 0.027570853009819984,
          "28": -0.048050038516521454,
          "29": 0.01712890714406967,
          "30": 0.07328932732343674,
          "31": -0.00525506678968668,
          "32": -0.06494498252868652,
          "33": 0.029600027948617935,
          "34": -0.01568220555782318,
          "35": -0.040501032024621964,
          "36": 0.06731029599905014,
          "37": -0.029055850580334663,
          "38": 0.06019781902432442,
          "39": 0.054496701806783676,
          "40": 0.022620966657996178,
          "41": -0.03707587346434593,
          "42": 0.07724859565496445,
          "43": -0.03785258159041405,
          "44": -0.010636113584041595,
          "45": 0.03817339986562729,
          "46": 0.06690318137407303,
          "47": -0.030588947236537933,
          "48": 0.07212167233228683,
          "49": -0.061482686549425125,
          "50": -0.03058372437953949,
          "51": 0.07449495792388916,
          "52": -0.058896150439977646,
          "53": 0.03913963586091995,
          "54": -0.05443381518125534,
          "55": -0.016656875610351562,
          "56": 0.016491157934069633,
          "57": 0.07365558296442032,
          "58": -0.013105877675116062,
          "59": 0.06559288501739502,
          "60": -0.044868696480989456,
          "61": -0.06321882456541061,
          "62": 0.05538681522011757,
          "63": 0.0473346933722496,
          "64": -0.011734767816960812,
          "65": 0.013236693106591702,
          "66": -0.0272542592138052,
          "67": 0.07022708654403687,
          "68": -0.03125791996717453,
          "69": -0.07410956174135208,
          "70": -0.07733646780252457,
          "71": 0.041435837745666504,
          "72": 0.011967766098678112,
          "73": 0.03801557049155235,
          "74": 0.06492509692907333,
          "75": -0.013375840149819851,
          "76": -0.015373441390693188,
          "77": 0.05312463641166687,
          "78": 0.05852288007736206,
          "79": 0.03961693495512009,
          "80": 0.07789221405982971,
          "81": -0.054122600704431534,
          "82": 0.06660451740026474,
          "83": 0.037147101014852524,
          "84": -0.00365549442358315,
          "85": -0.012988256290555,
          "86": -0.013046961277723312,
          "87": -0.02817200869321823,
          "88": 0.025880055502057076,
          "89": 0.0008392988820560277,
          "90": 0.008402524515986443,
          "91": 0.058668918907642365,
          "92": 0.0776253268122673,
          "93": 0.03254641219973564,
          "94": -0.0727536752820015,
          "95": -0.011786676943302155,
          "96": -0.02043808065354824,
          "97": -0.003697481704875827,
          "98": 0.007046116515994072,
          "99": 0.0680479034781456,
          "100": -0.04845612868666649,
          "101": 0.041953228414058685,
          "102": 0.06364596635103226,
          "103": 0.056025102734565735,
          "104": -0.036318566650152206,
          "105": -0.022777346894145012,
          "106": -0.06705671548843384,
          "107": 0.07833728939294815,
          "108": 0.0642811581492424,
          "109": 0.07079097628593445,
          "110": 0.046191439032554626,
          "111": 0.032929565757513046,
          "112": -0.05700557678937912,
          "113": -0.07012923806905746,
          "114": 0.05865970626473427,
          "115": -0.0033477104734629393,
          "116": -0.04306119307875633,
          "117": 0.07668361812829971,
          "118": 0.07218724489212036,
          "119": -0.07837788015604019
        }
      },
      "transition": {
        "rows": 20,
        "columns": 20,
        "weights": {
          "0": -0.04253150522708893,
          "1": -0.050654638558626175,
          "2": -0.0606042742729187,
          "3": 0.01540478877723217,
          "4": -0.04994313791394234,
          "5": -0.025718921795487404,
          "6": 0.07483202964067459,
          "7": -0.05509864166378975,
          "8": -0.01176032517105341,
          "9": 0.07448971271514893,
          "10": -0.04878940433263779,
          "11": -0.06834133714437485,
          "12": 0.05469222739338875,
          "13": -0.007378985174000263,
          "14": -0.06137682870030403,
          "15": 0.0408463329076767,
          "16": 0.0647987425327301,
          "17": -0.0699961706995964,
          "18": -0.01562942937016487,
          "19": -0.05503096804022789,
          "20": 0.010919090360403061,
          "21": -0.014951533637940884,
          "22": -0.02346392534673214,
          "23": 0.049769990146160126,
          "24": -0.019833434373140335,
          "25": 0.06542288511991501,
          "26": -0.024112015962600708,
          "27": 0.07892846316099167,
          "28": 0.020241394639015198,
          "29": -0.0010400217724964023,
          "30": 0.07147245109081268,
          "31": 0.03988216072320938,
          "32": -0.0007771716336719692,
          "33": 0.007500595413148403,
          "34": -0.07297409325838089,
          "35": 0.06299328804016113,
          "36": -0.05050181224942207,
          "37": -0.05410793051123619,
          "38": 0.030814681202173233,
          "39": 0.07555245608091354,
          "40": 0.014506296254694462,
          "41": -0.02738690935075283,
          "42": 0.02425563894212246,
          "43": -0.014573367312550545,
          "44": -0.03353679180145264,
          "45": -0.06795266270637512,
          "46": 0.025737296789884567,
          "47": -0.0592363104224205,
          "48": 0.033450834453105927,
          "49": -0.050055090337991714,
          "50": -0.046018701046705246,
          "51": -0.0384954959154129,
          "52": 0.02302415668964386,
          "53": -0.05323291942477226,
          "54": 0.07383336126804352,
          "55": -0.06836758553981781,
          "56": -0.06590940803289413,
          "57": 0.02552708610892296,
          "58": -0.06070135906338692,
          "59": 0.07126153260469437,
          "60": -0.008267318829894066,
          "61": 0.02386436238884926,
          "62": -0.0753745287656784,
          "63": 0.011497817933559418,
          "64": 0.003804760053753853,
          "65": -0.07742303609848022,
          "66": 0.0689481794834137,
          "67": -0.06286531686782837,
          "68": -0.04150857776403427,
          "69": -0.07292026281356812,
          "70": 0.07418894022703171,
          "71": -0.018308192491531372,
          "72": 0.026102423667907715,
          "73": -0.00011416617053328082,
          "74": 0.06539485603570938,
          "75": 0.0020324159413576126,
          "76": -0.06403811275959015,
          "77": 0.035162992775440216,
          "78": -0.0474335215985775,
          "79": 0.07437682151794434,
          "80": -0.06077044829726219,
          "81": 0.05713828280568123,
          "82": -0.06676492840051651,
          "83": -0.07609385997056961,
          "84": 0.04896257445216179,
          "85": 0.01523996889591217,
          "86": 0.06270725280046463,
          "87": -0.03182290866971016,
          "88": 0.0007727127522230148,
          "89": 0.0656142458319664,
          "90": 0.07250319421291351,
          "91": -0.017532356083393097,
          "92": 0.05119746923446655,
          "93": 0.036282144486904144,
          "94": 0.040664441883563995,
          "95": -0.06562446802854538,
          "96": 0.07610780000686646,
          "97": -0.0469973050057888,
          "98": -0.05446380376815796,
          "99": -0.0494106225669384,
          "100": -0.06097522750496864,
          "101": -0.07436990737915039,
          "102": -0.06447140127420425,
          "103": -0.0624508336186409,
          "104": 0.05950412154197693,
          "105": 0.07881440967321396,
          "106": 0.002894107485190034,
          "107": -0.07578471302986145,
          "108": 0.07990721613168716,
          "109": 0.06628210097551346,
          "110": 0.046629808843135834,
          "111": -0.059469789266586304,
          "112": -0.0075814793817698956,
          "113": -0.015936071053147316,
          "114": -0.0659286305308342,
          "115": -0.008807778358459473,
          "116": 0.03343157470226288,
          "117": -0.032534558326005936,
          "118": -0.07040458917617798,
          "119": -0.04739361256361008,
          "120": 0.02284487709403038,
          "121": 0.051566705107688904,
          "122": 0.03601588308811188,
          "123": 0.04614635556936264,
          "124": 0.026083314791321754,
          "125": -0.04150944948196411,
          "126": -0.011552293784916401,
          "127": 0.03471101075410843,
          "128": 0.0023813124280422926,
          "129": -0.072477787733078,
          "130": 0.01790960133075714,
          "131": -0.016479872167110443,
          "132": 0.020226024091243744,
          "133": -0.04125156253576279,
          "134": -0.055018920451402664,
          "135": 0.06904880702495575,
          "136": -0.07018076628446579,
          "137": -0.07349462807178497,
          "138": -0.07408048212528229,
          "139": -0.021330205723643303,
          "140": 0.057434819638729095,
          "141": -0.04095575958490372,
          "142": 0.012505012564361095,
          "143": 0.06727314740419388,
          "144": -0.0005799452774226665,
          "145": -0.06100945547223091,
          "146": 0.07426371425390244,
          "147": 0.03441192954778671,
          "148": 0.04386650025844574,
          "149": -0.07253974676132202,
          "150": -0.046686913818120956,
          "151": -0.05911371484398842,
          "152": 0.05875198170542717,
          "153": 0.027174564078450203,
          "154": 0.039299506694078445,
          "155": 0.03433944284915924,
          "156": 0.07110204547643661,
          "157": -0.01981685869395733,
          "158": -0.05545782297849655,
          "159": 0.029830781742930412,
          "160": 0.006515617482364178,
          "161": -0.021788397803902626,
          "162": -0.02461681142449379,
          "163": 0.0007666495512239635,
          "164": 0.013350688852369785,
          "165": -0.01143505796790123,
          "166": -0.026854325085878372,
          "167": -0.07933564484119415,
          "168": 0.03464357182383537,
          "169": 0.06434515863656998,
          "170": -0.05301552638411522,
          "171": -0.0096384072676301,
          "172": 0.05118374526500702,
          "173": -0.07209749519824982,
          "174": -0.06831277161836624,
          "175": -0.02279484085738659,
          "176": -0.05471453070640564,
          "177": -0.0171953272074461,
          "178": -0.05429520085453987,
          "179": 0.01415056549012661,
          "180": -0.010812053456902504,
          "181": 0.06116887927055359,
          "182": 0.050525978207588196,
          "183": 0.037395309656858444,
          "184": -0.04957398772239685,
          "185": 0.026609264314174652,
          "186": -0.011180964298546314,
          "187": 0.05355245620012283,
          "188": -0.05732281133532524,
          "189": 0.0391225703060627,
          "190": 0.010219154879450798,
          "191": -0.020047219470143318,
          "192": 0.07315050065517426,
          "193": -0.055455390363931656,
          "194": -0.06583499908447266,
          "195": -0.04692099243402481,
          "196": 0.04292559251189232,
          "197": -0.002064779866486788,
          "198": 0.00990574061870575,
          "199": 0.029203347861766815,
          "200": 0.0007899212068878114,
          "201": -0.012683497741818428,
          "202": -0.07872911542654037,
          "203": 0.02016548067331314,
          "204": 0.007384964730590582,
          "205": 0.06140539050102234,
          "206": 0.0075712730176746845,
          "207": -0.03778276965022087,
          "208": 0.014285104349255562,
          "209": -0.05323263630270958,
          "210": 0.003518370445817709,
          "211": 0.034891922026872635,
          "212": 0.04468577727675438,
          "213": -0.061768874526023865,
          "214": 0.03582042083144188,
          "215": 0.04797186329960823,
          "216": -0.0681171789765358,
          "217": 0.024763762950897217,
          "218": 0.05541000887751579,
          "219": 0.05043504014611244,
          "220": 0.037255700677633286,
          "221": 0.0511055551469326,
          "222": -0.021632704883813858,
          "223": 0.0504278726875782,
          "224": 0.05463419854640961,
          "225": 0.07067056745290756,
          "226": -0.07266225665807724,
          "227": -0.0645444467663765,
          "228": 0.019076110795140266,
          "229": -0.06463373452425003,
          "230": 0.01865377649664879,
          "231": -0.006694522686302662,
          "232": 0.041640639305114746,
          "233": 0.06039359048008919,
          "234": 0.029559358954429626,
          "235": -0.030970506370067596,
          "236": -0.05191737040877342,
          "237": -0.032064106315374374,
          "238": 0.060594458132982254,
          "239": 0.07505230605602264,
          "240": -0.034907832741737366,
          "241": -0.04850809648633003,
          "242": -0.006924505811184645,
          "243": -0.02062397450208664,
          "244": -0.06655248999595642,
          "245": 0.04372083768248558,
          "246": 0.058066144585609436,
          "247": 0.009631490334868431,
          "248": -0.03366530314087868,
          "249": 0.0431104451417923,
          "250": -0.05257527530193329,
          "251": -0.07194878906011581,
          "252": -0.03558247163891792,
          "253": 0.019813960418105125,
          "254": -0.05362331494688988,
          "255": -0.052742186933755875,
          "256": 0.04703410342335701,
          "257": 0.05850239098072052,
          "258": -0.007550842594355345,
          "259": -0.05827301740646362,
          "260": 0.04811123013496399,
          "261": 0.008827396668493748,
          "262": -0.03696499764919281,
          "263": 0.057506777346134186,
          "264": -0.04287188500165939,
          "265": -0.07233091443777084,
          "266": 0.07677352428436279,
          "267": -0.05662243440747261,
          "268": -0.07775614410638809,
          "269": -0.06904429197311401,
          "270": 0.0015219578053802252,
          "271": 0.04758851230144501,
          "272": 0.02786494605243206,
          "273": 0.0780123770236969,
          "274": 0.03312619403004646,
          "275": 0.020149042829871178,
          "276": 0.04545627161860466,
          "277": 0.006372385658323765,
          "278": -0.07679878920316696,
          "279": -0.004557495005428791,
          "280": -0.038383059203624725,
          "281": 0.04109964519739151,
          "282": -0.002154045505449176,
          "283": 0.060770776122808456,
          "284": 0.05704792961478233,
          "285": -0.008781236596405506,
          "286": -0.06738850474357605,
          "287": 0.06984241306781769,
          "288": 0.00447951490059495,
          "289": -0.018309781327843666,
          "290": -0.04541489854454994,
          "291": 0.06084977835416794,
          "292": -0.06044609844684601,
          "293": -0.025258250534534454,
          "294": 0.06987184286117554,
          "295": -0.06506191939115524,
          "296": -0.05025504156947136,
          "297": 0.01242770068347454,
          "298": -0.04974067956209183,
          "299": 0.008447512052953243,
          "300": 0.02862820215523243,
          "301": 0.0574798546731472,
          "302": -0.00911526195704937,
          "303": 0.016636744141578674,
          "304": 0.05327782779932022,
          "305": -0.06850970536470413,
          "306": 0.018223164603114128,
          "307": -0.06732987612485886,
          "308": 0.013926849700510502,
          "309": 0.026027999818325043,
          "310": -0.03988121077418327,
          "311": -0.07195036858320236,
          "312": -0.030756255611777306,
          "313": 0.018096409738063812,
          "314": 0.01922730728983879,
          "315": 0.016005409881472588,
          "316": -0.010460959747433662,
          "317": -0.03131086751818657,
          "318": -0.0679546520113945,
          "319": -0.009492295794188976,
          "320": -0.059359144419431686,
          "321": 0.06466768682003021,
          "322": 0.015101896598935127,
          "323": 0.03597176820039749,
          "324": -0.06741522252559662,
          "325": -0.02914583310484886,
          "326": 0.027873164042830467,
          "327": 0.07649777829647064,
          "328": -0.054215315729379654,
          "329": 0.0033982174936681986,
          "330": 0.01788579486310482,
          "331": 0.07211706042289734,
          "332": -0.004925768356770277,
          "333": 0.07261841744184494,
          "334": -0.06924822181463242,
          "335": 0.05322159454226494,
          "336": 0.00987169798463583,
          "337": -0.018112054094672203,
          "338": -0.017588840797543526,
          "339": -0.0796528235077858,
          "340": -0.06682000309228897,
          "341": -0.0276466216892004,
          "342": 0.0587521493434906,
          "343": -0.006978815421462059,
          "344": 0.0774206891655922,
          "345": 0.020314253866672516,
          "346": -0.030890077352523804,
          "347": -0.032286155968904495,
          "348": 0.007708446122705936,
          "349": 0.0713045746088028,
          "350": 0.06725610047578812,
          "351": 0.07317901402711868,
          "352": 0.0008112427312880754,
          "353": -0.03192416578531265,
          "354": -0.06795840710401535,
          "355": -0.005866460036486387,
          "356": 0.06201505661010742,
          "357": -0.008037906140089035,
          "358": -0.07330296188592911,
          "359": 0.04223289713263512,
          "360": -0.02989833988249302,
          "361": 0.06354866921901703,
          "362": -0.019431184977293015,
          "363": 0.030811229720711708,
          "364": -0.061768095940351486,
          "365": -0.07270391285419464,
          "366": 0.05877773091197014,
          "367": -0.05250084400177002,
          "368": 0.0491768941283226,
          "369": 0.01100433524698019,
          "370": 0.04560600221157074,
          "371": -0.01175351720303297,
          "372": -0.01521520595997572,
          "373": 0.0044183977879583836,
          "374": 0.07622320204973221,
          "375": -0.051275935024023056,
          "376": -0.028439978137612343,
          "377": 0.0703660175204277,
          "378": -0.04622318968176842,
          "379": 0.06408505886793137,
          "380": 0.033009111881256104,
          "381": -0.009803841821849346,
          "382": -0.015568920411169529,
          "383": -0.022658374160528183,
          "384": -0.017644165083765984,
          "385": -0.008334721438586712,
          "386": 0.004657071083784103,
          "387": 0.023791607469320297,
          "388": 0.060901425778865814,
          "389": -0.04775198549032211,
          "390": -0.05912477895617485,
          "391": 0.06819364428520203,
          "392": 0.05209071934223175,
          "393": -0.017807379364967346,
          "394": -0.015064527280628681,
          "395": 0.02591307833790779,
          "396": 0.013791652396321297,
          "397": -0.06665103882551193,
          "398": 0.04461495950818062,
          "399": 0.036682989448308945
        }
      },
      "bias": {
        "rows": 20,
        "columns": 1,
        "weights": {
          "0": 0,
          "1": 0,
          "2": 0,
          "3": 0,
          "4": 0,
          "5": 0,
          "6": 0,
          "7": 0,
          "8": 0,
          "9": 0,
          "10": 0,
          "11": 0,
          "12": 0,
          "13": 0,
          "14": 0,
          "15": 0,
          "16": 0,
          "17": 0,
          "18": 0,
          "19": 0
        }
      }
    },
    {
      "weight": {
        "rows": 20,
        "columns": 20,
        "weights": {
          "0": 0.0180821493268013,
          "1": 0.004536821506917477,
          "2": 0.006859099958091974,
          "3": -0.0686069130897522,
          "4": -0.0196970347315073,
          "5": -0.07186959683895111,
          "6": 0.03936920315027237,
          "7": -0.004493785556405783,
          "8": -0.059194572269916534,
          "9": -0.01332399807870388,
          "10": 0.046822305768728256,
          "11": -0.06593182682991028,
          "12": -0.013454950414597988,
          "13": 0.05301918089389801,
          "14": 0.0343928262591362,
          "15": -0.0015327289002016187,
          "16": 0.01777837984263897,
          "17": 0.07036791741847992,
          "18": -0.03512667119503021,
          "19": 0.026996275410056114,
          "20": -0.020078163594007492,
          "21": 0.02470243163406849,
          "22": 0.008574270643293858,
          "23": 0.015584341250360012,
          "24": 0.017555266618728638,
          "25": 0.025268184021115303,
          "26": -0.03438182547688484,
          "27": -0.06490077078342438,
          "28": 0.029422415420413017,
          "29": 0.0719887763261795,
          "30": 0.022099964320659637,
          "31": 0.0033332433085888624,
          "32": 0.00890621729195118,
          "33": 0.006756963673979044,
          "34": 0.03382890298962593,
          "35": 0.02218014746904373,
          "36": 0.0707264319062233,
          "37": 0.053593702614307404,
          "38": -0.04337999224662781,
          "39": -0.013348618522286415,
          "40": -0.04952884837985039,
          "41": -0.01245033834129572,
          "42": -0.039356958121061325,
          "43": 0.07993824779987335,
          "44": 0.07421337068080902,
          "45": 0.00654675392434001,
          "46": 0.07098258286714554,
          "47": -0.016341572627425194,
          "48": 0.0699853003025055,
          "49": -0.0031595961190760136,
          "50": -0.029922766610980034,
          "51": 0.020558655261993408,
          "52": 0.051030129194259644,
          "53": -0.055879365652799606,
          "54": 0.05752154439687729,
          "55": -0.04307280480861664,
          "56": -0.02540329098701477,
          "57": 0.019942540675401688,
          "58": -0.011197498068213463,
          "59": -0.0733375996351242,
          "60": -0.045044105499982834,
          "61": 0.07152651995420456,
          "62": -0.029086215421557426,
          "63": 0.002487943274900317,
          "64": -0.05055917799472809,
          "65": -0.009224267676472664,
          "66": 0.03830456733703613,
          "67": -0.02074795961380005,
          "68": 0.06521590799093246,
          "69": 0.07855725288391113,
          "70": -0.05352001637220383,
          "71": -0.07187887281179428,
          "72": 0.0325765386223793,
          "73": 0.039104659110307693,
          "74": -0.03314729034900665,
          "75": -0.01767304353415966,
          "76": 0.029059099033474922,
          "77": 0.016294732689857483,
          "78": 0.016317764297127724,
          "79": -0.04512272775173187,
          "80": -0.05917130038142204,
          "81": 0.025476442649960518,
          "82": 0.07559902220964432,
          "83": 0.07732672989368439,
          "84": 0.007749165408313274,
          "85": -0.06097991019487381,
          "86": 0.02058565430343151,
          "87": 0.031556326895952225,
          "88": -0.026507295668125153,
          "89": 0.0293485838919878,
          "90": 0.0229064729064703,
          "91": -0.06532418727874756,
          "92": 0.03157203271985054,
          "93": 0.041023898869752884,
          "94": -0.06775310635566711,
          "95": -0.054507117718458176,
          "96": 0.0694747343659401,
          "97": -0.06839264184236526,
          "98": -0.0748974159359932,
          "99": 0.0012779913377016783,
          "100": 0.022735288366675377,
          "101": 0.023680010810494423,
          "102": 0.02153405360877514,
          "103": -0.04691145196557045,
          "104": 0.025470007210969925,
          "105": 0.07244601100683212,
          "106": -0.019498445093631744,
          "107": 0.04171852022409439,
          "108": -0.06056005880236626,
          "109": -0.01848747208714485,
          "110": -0.013523825444281101,
          "111": -0.00018879961862694472,
          "112": 0.016679219901561737,
          "113": -0.003406879724934697,
          "114": -0.017794694751501083,
          "115": 0.018536144867539406,
          "116": -0.02730298601090908,
          "117": -0.0178359467536211,
          "118": 0.045063566416502,
          "119": -0.012455691583454609,
          "120": 0.02979101426899433,
          "121": -0.04194740206003189,
          "122": -0.010745255276560783,
          "123": 0.07087574154138565,
          "124": 0.06111108139157295,
          "125": 0.06391729414463043,
          "126": -0.06003778055310249,
          "127": 0.017520900815725327,
          "128": -0.014862989075481892,
          "129": 0.04570596665143967,
          "130": -0.03726044297218323,
          "131": -0.048618730157613754,
          "132": -0.03371531888842583,
          "133": 0.019901171326637268,
          "134": 0.06272793561220169,
          "135": 0.03424988314509392,
          "136": -0.03482699766755104,
          "137": 0.04224209487438202,
          "138": 0.01625392958521843,
          "139": 0.05455158278346062,
          "140": 0.07370496541261673,
          "141": 0.035017404705286026,
          "142": -0.00488540343940258,
          "143": -0.028141222894191742,
          "144": -0.027338704094290733,
          "145": -0.07505754381418228,
          "146": 0.07964255660772324,
          "147": 0.05776817724108696,
          "148": 0.0016415913123637438,
          "149": -0.03723445162177086,
          "150": -0.07273956388235092,
          "151": 0.03293392062187195,
          "152": 0.07708194106817245,
          "153": 0.07298500835895538,
          "154": -0.02102923020720482,
          "155": 0.036993566900491714,
          "156": -0.03535028174519539,
          "157": -0.055771663784980774,
          "158": -0.010200983844697475,
          "159": -0.07690740376710892,
          "160": 0.04335641860961914,
          "161": 0.030397742986679077,
          "162": 0.05756933242082596,
          "163": -0.06978461891412735,
          "164": -0.0574055090546608,
          "165": -0.06636133044958115,
          "166": 0.059149663895368576,
          "167": 0.04236091673374176,
          "168": 0.01085992343723774,
          "169": 0.07502961158752441,
          "170": 0.02046661078929901,
          "171": -0.06387554854154587,
          "172": 0.07416541129350662,
          "173": 0.007479213643819094,
          "174": -0.050679586827754974,
          "175": -0.044755950570106506,
          "176": -0.01657930202782154,
          "177": 0.06417486071586609,
          "178": -0.06812866777181625,
          "179": 0.04138163849711418,
          "180": 0.05973990261554718,
          "181": -0.012105809524655342,
          "182": 0.03112560138106346,
          "183": 0.007006084080785513,
          "184": -0.016895148903131485,
          "185": 0.0209973007440567,
          "186": -0.07689172774553299,
          "187": 0.07327668368816376,
          "188": -0.07666900753974915,
          "189": 0.01508675329387188,
          "190": -0.004695990588515997,
          "191": -0.044400107115507126,
          "192": 0.019080698490142822,
          "193": 0.02886776439845562,
          "194": 0.06680641323328018,
          "195": -0.04383735731244087,
          "196": -0.07403235137462616,
          "197": -0.020259199663996696,
          "198": -0.0052931951358914375,
          "199": 0.06264955550432205,
          "200": -0.04608500748872757,
          "201": -0.04862922430038452,
          "202": 0.05967067554593086,
          "203": -0.05362464487552643,
          "204": 0.04587384685873985,
          "205": -0.07737754285335541,
          "206": -0.04201892763376236,
          "207": -0.010831426829099655,
          "208": 0.016485702246427536,
          "209": 0.06430048495531082,
          "210": 0.06008325144648552,
          "211": -0.03138354420661926,
          "212": -0.002638682024553418,
          "213": 0.04205893352627754,
          "214": -0.051709793508052826,
          "215": 0.005534718278795481,
          "216": -0.07189851254224777,
          "217": -0.05233223736286163,
          "218": 0.07815074920654297,
          "219": 0.011915498413145542,
          "220": -0.06166016682982445,
          "221": 0.04753398522734642,
          "222": -0.016485055908560753,
          "223": 0.006470180582255125,
          "224": -0.0759243369102478,
          "225": 0.0603005513548851,
          "226": 0.06875137984752655,
          "227": -0.057445719838142395,
          "228": 0.017815841361880302,
          "229": -0.058755163103342056,
          "230": -0.009940127842128277,
          "231": 0.028655007481575012,
          "232": 0.004496786277741194,
          "233": -0.05140630155801773,
          "234": 0.06412442028522491,
          "235": -0.06393180787563324,
          "236": -0.06974530965089798,
          "237": -0.06182451546192169,
          "238": 0.050975166261196136,
          "239": 0.07441425323486328,
          "240": -0.045284710824489594,
          "241": -0.007319978438317776,
          "242": -0.012432996183633804,
          "243": -0.03437022492289543,
          "244": -0.019084462895989418,
          "245": 0.0012325639836490154,
          "246": 0.05604620650410652,
          "247": -0.05743780732154846,
          "248": 0.025634953752160072,
          "249": -0.06228400021791458,
          "250": -0.056272268295288086,
          "251": -0.05296666920185089,
          "252": -0.012469064444303513,
          "253": 0.007477841805666685,
          "254": 0.03554243966937065,
          "255": 0.03084973245859146,
          "256": -0.018239296972751617,
          "257": -0.0658310130238533,
          "258": 0.010889703407883644,
          "259": 0.04534110799431801,
          "260": -0.029570596292614937,
          "261": 0.07802649587392807,
          "262": -0.06206775829195976,
          "263": -0.01832537166774273,
          "264": 0.005478940438479185,
          "265": 0.06259189546108246,
          "266": -0.07368160039186478,
          "267": 0.03884470462799072,
          "268": 0.062412019819021225,
          "269": -0.020729923620820045,
          "270": 0.005832751747220755,
          "271": -0.06085804104804993,
          "272": -0.04100286215543747,
          "273": -0.021622614935040474,
          "274": -0.0608755499124527,
          "275": 0.021241815760731697,
          "276": 0.014819605275988579,
          "277": -0.07788644731044769,
          "278": -0.03242065757513046,
          "279": 0.026365021243691444,
          "280": 0.01466730609536171,
          "281": -0.07359928637742996,
          "282": 0.016046402975916862,
          "283": -0.012980654835700989,
          "284": 0.05469581484794617,
          "285": 0.0001559486408950761,
          "286": -0.05775673687458038,
          "287": -0.03726368770003319,
          "288": 0.03406371921300888,
          "289": 0.0031768237240612507,
          "290": 0.025222305208444595,
          "291": -0.03787476196885109,
          "292": 0.011641493998467922,
          "293": 0.03470120579004288,
          "294": -0.04184304177761078,
          "295": -0.03867954760789871,
          "296": 0.033150896430015564,
          "297": -0.060089707374572754,
          "298": 0.003965713549405336,
          "299": 0.04623538255691528,
          "300": -0.018457643687725067,
          "301": 0.06254296004772186,
          "302": 0.012759782373905182,
          "303": 0.05398042872548103,
          "304": 0.003935454413294792,
          "305": -0.009837164543569088,
          "306": 0.012259058654308319,
          "307": 0.04530266672372818,
          "308": -0.0748225599527359,
          "309": -0.02263578772544861,
          "310": 0.022083381190896034,
          "311": 0.0683697834610939,
          "312": -0.017992990091443062,
          "313": -0.06588585674762726,
          "314": -0.045830316841602325,
          "315": 0.05005566403269768,
          "316": 0.019361644983291626,
          "317": -0.047038111835718155,
          "318": 0.0746423527598381,
          "319": 0.04349517822265625,
          "320": -0.07523795962333679,
          "321": -0.07364427298307419,
          "322": -0.02560058794915676,
          "323": 0.07368718832731247,
          "324": -0.04844922199845314,
          "325": -0.07010260224342346,
          "326": 0.006220935378223658,
          "327": -0.013295277021825314,
          "328": -0.04167037084698677,
          "329": -0.04494114965200424,
          "330": -0.008229304105043411,
          "331": -0.0023874519392848015,
          "332": 0.06422662734985352,
          "333": -0.041142988950014114,
          "334": 0.06063235178589821,
          "335": -0.007530499715358019,
          "336": 0.0017014731420204043,
          "337": 0.03173151612281799,
          "338": -0.06238504871726036,
          "339": -0.07226637750864029,
          "340": 0.011158988811075687,
          "341": -0.07250285148620605,
          "342": -0.07145201414823532,
          "343": -0.01764375902712345,
          "344": -0.04921598732471466,
          "345": 0.042640019208192825,
          "346": 0.05297665297985077,
          "347": -0.01920689269900322,
          "348": 0.01200807560235262,
          "349": 0.018043335527181625,
          "350": -0.05935169383883476,
          "351": -0.037254270166158676,
          "352": 0.05520951747894287,
          "353": 0.022807618603110313,
          "354": -0.06254199147224426,
          "355": 0.034040417522192,
          "356": -0.03856256976723671,
          "357": -0.04743347689509392,
          "358": -0.0646791085600853,
          "359": -0.027890484780073166,
          "360": -0.0316559262573719,
          "361": 0.0050704278983175755,
          "362": -0.04584931954741478,
          "363": -0.057267047464847565,
          "364": 0.020172568038105965,
          "365": -0.039286959916353226,
          "366": 0.03358271345496178,
          "367": -0.056139204651117325,
          "368": -0.023384777829051018,
          "369": 0.01511179655790329,
          "370": -0.06420223414897919,
          "371": -0.06338143348693848,
          "372": -0.01598239317536354,
          "373": -0.04399053752422333,
          "374": 0.06424407660961151,
          "375": -0.003920046146959066,
          "376": 0.06264128535985947,
          "377": 0.055949676781892776,
          "378": -0.054629743099212646,
          "379": -0.06691121309995651,
          "380": -0.024601522833108902,
          "381": 0.06258547306060791,
          "382": 0.07846540957689285,
          "383": -0.07752452790737152,
          "384": -0.06398630142211914,
          "385": -0.037448372691869736,
          "386": 0.011653846129775047,
          "387": -0.01890970580279827,
          "388": -0.06126740947365761,
          "389": -0.030547689646482468,
          "390": -0.009927082806825638,
          "391": 0.035438623279333115,
          "392": -0.05003150552511215,
          "393": -0.06745149940252304,
          "394": -0.03516382724046707,
          "395": 0.013065559789538383,
          "396": -0.07703214883804321,
          "397": 0.07573969662189484,
          "398": -0.04744711518287659,
          "399": -0.033067427575588226
        }
      },
      "transition": {
        "rows": 20,
        "columns": 20,
        "weights": {
          "0": -0.05801250413060188,
          "1": 0.0783589780330658,
          "2": -0.030510224401950836,
          "3": 0.033717185258865356,
          "4": -0.017107544466853142,
          "5": -0.008303237147629261,
          "6": -0.07817081362009048,
          "7": 0.03398347645998001,
          "8": -0.04235896095633507,
          "9": -0.06996489316225052,
          "10": -0.03616810590028763,
          "11": 0.029001111164689064,
          "12": -0.024139100685715675,
          "13": -0.0071190581656992435,
          "14": -0.0023220519069582224,
          "15": -0.0391702875494957,
          "16": 0.048539962619543076,
          "17": -0.055412162095308304,
          "18": 0.03942921385169029,
          "19": 0.07470826059579849,
          "20": 0.04004601389169693,
          "21": -0.0697430744767189,
          "22": 0.027048638090491295,
          "23": 0.053131718188524246,
          "24": -0.005439428146928549,
          "25": -0.03607546538114548,
          "26": 0.05065912380814552,
          "27": 0.030725022777915,
          "28": -0.017576437443494797,
          "29": -0.058733414858579636,
          "30": -0.05403071269392967,
          "31": 0.06181441619992256,
          "32": -0.006571575067937374,
          "33": -0.03563855588436127,
          "34": -0.06903672963380814,
          "35": -0.0344451442360878,
          "36": 0.012249110266566277,
          "37": -0.027703912928700447,
          "38": 0.02254512719810009,
          "39": -0.05953425541520119,
          "40": 0.003330649808049202,
          "41": 0.07113711535930634,
          "42": 0.0075807212851941586,
          "43": -0.020288119092583656,
          "44": -0.026080617681145668,
          "45": -0.06713078916072845,
          "46": 0.04375038295984268,
          "47": -0.05249587073922157,
          "48": 0.0412919856607914,
          "49": 0.055859893560409546,
          "50": 0.028881048783659935,
          "51": -0.014374238438904285,
          "52": 0.0746532678604126,
          "53": -0.00860734935849905,
          "54": -0.04944079741835594,
          "55": -0.011966654099524021,
          "56": -0.04656084254384041,
          "57": -0.00751110352575779,
          "58": 0.0006001232541166246,
          "59": 0.06099619343876839,
          "60": 0.026661420240998268,
          "61": -0.047272857278585434,
          "62": 0.010960367508232594,
          "63": 0.0437491349875927,
          "64": -0.0675094872713089,
          "65": -0.048025839030742645,
          "66": 0.024259863421320915,
          "67": -0.02383163571357727,
          "68": 0.007147542200982571,
          "69": -0.06010913848876953,
          "70": -0.008580629713833332,
          "71": 0.008661877363920212,
          "72": -0.014822696335613728,
          "73": -0.05803006514906883,
          "74": -0.013521207496523857,
          "75": -0.052320342510938644,
          "76": -0.0621686726808548,
          "77": 0.04124736785888672,
          "78": 0.06847158819437027,
          "79": 0.07038050144910812,
          "80": 0.056031107902526855,
          "81": -0.021673062816262245,
          "82": 0.0503702275454998,
          "83": 0.05621596425771713,
          "84": -0.04089217260479927,
          "85": 0.001848147134296596,
          "86": -0.03589595854282379,
          "87": -0.04226302355527878,
          "88": -0.06624193489551544,
          "89": -0.03336602449417114,
          "90": -0.00960601307451725,
          "91": -0.07324914634227753,
          "92": -0.06452744454145432,
          "93": -0.07215585559606552,
          "94": 0.023808691650629044,
          "95": -0.03170868381857872,
          "96": 0.028316477313637733,
          "97": -0.005117639899253845,
          "98": -0.022083619609475136,
          "99": 0.009586680680513382,
          "100": -0.05438070371747017,
          "101": 0.0749000608921051,
          "102": -0.0189224760979414,
          "103": 0.07288869470357895,
          "104": -0.028658384457230568,
          "105": 0.04290570318698883,
          "106": -0.07054856419563293,
          "107": -0.05955673009157181,
          "108": 0.045124344527721405,
          "109": -0.03813156858086586,
          "110": 0.05755915492773056,
          "111": -0.04173828288912773,
          "112": 0.04451645910739899,
          "113": -0.025842716917395592,
          "114": -0.07974313944578171,
          "115": -0.03576487675309181,
          "116": 0.024323884397745132,
          "117": -0.01610206626355648,
          "118": -0.03293370082974434,
          "119": 0.05306027829647064,
          "120": 0.018077928572893143,
          "121": 0.07715103030204773,
          "122": 0.0741024911403656,
          "123": -0.059256866574287415,
          "124": -0.013477053493261337,
          "125": 0.060558561235666275,
          "126": 0.05021319165825844,
          "127": 0.042328543961048126,
          "128": 0.05742661654949188,
          "129": -0.04150747135281563,
          "130": -0.07712867110967636,
          "131": 0.0736694261431694,
          "132": 0.037775807082653046,
          "133": 0.051564522087574005,
          "134": -0.015581597574055195,
          "135": -0.07316441088914871,
          "136": -0.03768794238567352,
          "137": -0.05518096685409546,
          "138": -0.048806145787239075,
          "139": -0.038974739611148834,
          "140": -0.03007522039115429,
          "141": 0.03205621615052223,
          "142": -0.04599756374955177,
          "143": 0.06086602434515953,
          "144": 0.07436038553714752,
          "145": 0.021608704701066017,
          "146": 0.02622438408434391,
          "147": -0.0579703114926815,
          "148": -0.02306351810693741,
          "149": 0.050703514367341995,
          "150": -0.0441506989300251,
          "151": -0.012277469970285892,
          "152": 0.004809736739844084,
          "153": -0.06421943753957748,
          "154": -0.07878724485635757,
          "155": -0.005206176079809666,
          "156": -0.004780463874340057,
          "157": 0.027907492592930794,
          "158": -0.0013873606221750379,
          "159": -0.07635243237018585,
          "160": 0.07035725563764572,
          "161": -0.073943592607975,
          "162": 0.05031130090355873,
          "163": 0.04830059036612511,
          "164": -0.05824119225144386,
          "165": -0.02650102600455284,
          "166": 0.028366975486278534,
          "167": 0.0019542346708476543,
          "168": -0.036390289664268494,
          "169": -0.029165446758270264,
          "170": -0.02840466797351837,
          "171": -0.05132170766592026,
          "172": -0.06801190972328186,
          "173": 0.0382041409611702,
          "174": -0.0677918866276741,
          "175": 0.07606962323188782,
          "176": -0.021951215341687202,
          "177": 0.028795044869184494,
          "178": 0.02237541787326336,
          "179": -0.04274209588766098,
          "180": -0.04658052697777748,
          "181": -0.06513669341802597,
          "182": 0.07164420932531357,
          "183": -0.008558266796171665,
          "184": -0.06810944527387619,
          "185": 0.07974234223365784,
          "186": -0.054973263293504715,
          "187": 0.008970213122665882,
          "188": -0.06738583743572235,
          "189": -0.07339705526828766,
          "190": -0.07640228420495987,
          "191": 0.02406914532184601,
          "192": 0.028963487595319748,
          "193": 0.0279019083827734,
          "194": 0.04760159179568291,
          "195": 0.06635352969169617,
          "196": -0.03060632385313511,
          "197": 0.0433049313724041,
          "198": -0.02710532955825329,
          "199": 0.07708747684955597,
          "200": 0.03681062534451485,
          "201": 0.00006770576146664098,
          "202": -0.07765349000692368,
          "203": 0.02876468189060688,
          "204": 0.060033127665519714,
          "205": -0.0013626208528876305,
          "206": 0.0013237022794783115,
          "207": 0.04811806231737137,
          "208": -0.06765233725309372,
          "209": -0.07547836750745773,
          "210": 0.07197139412164688,
          "211": -0.005760261323302984,
          "212": 0.07056102156639099,
          "213": 0.06779437512159348,
          "214": 0.030473142862319946,
          "215": 0.04214344173669815,
          "216": -0.016229752451181412,
          "217": -0.002242462243884802,
          "218": -0.0007469250704161823,
          "219": 0.026931101456284523,
          "220": -0.001366036362014711,
          "221": -0.00835141446441412,
          "222": 0.02211550623178482,
          "223": -0.04886285588145256,
          "224": -0.07923302799463272,
          "225": -0.06128433719277382,
          "226": -0.014135061763226986,
          "227": 0.03165501356124878,
          "228": 0.0748906284570694,
          "229": -0.043676815927028656,
          "230": -0.007709373254328966,
          "231": 0.06821446120738983,
          "232": 0.05743348225951195,
          "233": 0.027940670028328896,
          "234": -0.004367955029010773,
          "235": 0.009162216447293758,
          "236": -0.07468511909246445,
          "237": -0.030585281550884247,
          "238": 0.03366505727171898,
          "239": -0.06248779967427254,
          "240": -0.0018666638061404228,
          "241": -0.06635875999927521,
          "242": 0.018838634714484215,
          "243": 0.0025165334809571505,
          "244": -0.04745880514383316,
          "245": -0.06828609108924866,
          "246": -0.06465546041727066,
          "247": 0.05150120332837105,
          "248": 0.05215482786297798,
          "249": 0.0340549536049366,
          "250": 0.01832287386059761,
          "251": -0.016888907179236412,
          "252": 0.06118032708764076,
          "253": 0.06969279050827026,
          "254": -0.07474885880947113,
          "255": 0.04990345612168312,
          "256": -0.005203500855714083,
          "257": 0.05542592704296112,
          "258": -0.0008614517282694578,
          "259": 0.05273057520389557,
          "260": -0.005838658660650253,
          "261": -0.03067517839372158,
          "262": 0.008254501968622208,
          "263": -0.01096661202609539,
          "264": -0.07306884974241257,
          "265": 0.0672977864742279,
          "266": -0.009431641548871994,
          "267": -0.008569489233195782,
          "268": -0.07759508490562439,
          "269": 0.06949496269226074,
          "270": -0.056212086230516434,
          "271": -0.029765641316771507,
          "272": -0.0002586428017821163,
          "273": 0.06223774328827858,
          "274": 0.03198537603020668,
          "275": 0.0033839743118733168,
          "276": -0.03881373628973961,
          "277": -0.006222061812877655,
          "278": 0.0681520327925682,
          "279": -0.0595850870013237,
          "280": -0.07779615372419357,
          "281": 0.032095685601234436,
          "282": -0.016241054981946945,
          "283": -0.05906759947538376,
          "284": -0.06785742938518524,
          "285": 0.025101274251937866,
          "286": -0.037432827055454254,
          "287": -0.07305371016263962,
          "288": 0.0021670390851795673,
          "289": 0.016470588743686676,
          "290": 0.04773245379328728,
          "291": -0.01945316046476364,
          "292": 0.034981004893779755,
          "293": -0.07597687095403671,
          "294": 0.02515471912920475,
          "295": -0.04594219848513603,
          "296": 0.04714428260922432,
          "297": -0.012212909758090973,
          "298": -0.0017927528824657202,
          "299": 0.036614835262298584,
          "300": 0.0031520542688667774,
          "301": -0.0059252106584608555,
          "302": 0.038249194622039795,
          "303": 0.06537893414497375,
          "304": 0.052205201238393784,
          "305": -0.03410077467560768,
          "306": 0.0204886756837368,
          "307": -0.042309682816267014,
          "308": -0.04888719692826271,
          "309": 0.058421555906534195,
          "310": 0.007905490696430206,
          "311": -0.07276120036840439,
          "312": 0.024997727945446968,
          "313": 0.007823863998055458,
          "314": 0.04364847391843796,
          "315": -0.0027661267668008804,
          "316": -0.04008612781763077,
          "317": 0.06558658927679062,
          "318": -0.07630142569541931,
          "319": 0.022816285490989685,
          "320": -0.0396534688770771,
          "321": 0.009916630573570728,
          "322": 0.07384057343006134,
          "323": -0.012132339179515839,
          "324": 0.030119385570287704,
          "325": 0.0728386640548706,
          "326": -0.011877915821969509,
          "327": -0.03916609287261963,
          "328": 0.03561961278319359,
          "329": -0.05482777580618858,
          "330": -0.009750518947839737,
          "331": -0.06974545121192932,
          "332": 0.031681500375270844,
          "333": 0.06235149875283241,
          "334": 0.07280971854925156,
          "335": -0.06611747294664383,
          "336": -0.04109905660152435,
          "337": 0.021079301834106445,
          "338": -0.0027922792360186577,
          "339": -0.04043059051036835,
          "340": 0.028651105239987373,
          "341": -0.024145260453224182,
          "342": -0.07189978659152985,
          "343": 0.05430837720632553,
          "344": 0.001537136733531952,
          "345": 0.04949363321065903,
          "346": 0.07694856077432632,
          "347": -0.04186473786830902,
          "348": -0.059621311724185944,
          "349": -0.02290833368897438,
          "350": 0.07178367674350739,
          "351": -0.03716062009334564,
          "352": -0.05066600441932678,
          "353": 0.044244978576898575,
          "354": 0.0661606416106224,
          "355": 0.05930405110120773,
          "356": -0.0356878787279129,
          "357": -0.02790268138051033,
          "358": -0.034538161009550095,
          "359": -0.03921781852841377,
          "360": -0.04841235652565956,
          "361": -0.06300231069326401,
          "362": -0.036322131752967834,
          "363": 0.05537823960185051,
          "364": -0.007816583849489689,
          "365": -0.010453621856868267,
          "366": -0.013009902089834213,
          "367": 0.07431551069021225,
          "368": 0.024958034977316856,
          "369": 0.07467212527990341,
          "370": -0.03287710249423981,
          "371": -0.02517501823604107,
          "372": -0.0250529907643795,
          "373": 0.039959777146577835,
          "374": 0.05508042499423027,
          "375": -0.044125307351350784,
          "376": -0.011579648591578007,
          "377": 0.028469134122133255,
          "378": 0.0021045368630439043,
          "379": -0.018501900136470795,
          "380": 0.03933967277407646,
          "381": -0.044084176421165466,
          "382": 0.0499851256608963,
          "383": 0.049185413867235184,
          "384": -0.04647123068571091,
          "385": 0.03641214594244957,
          "386": 0.07504290342330933,
          "387": 0.05350884050130844,
          "388": 0.07235269993543625,
          "389": -0.02011488564312458,
          "390": -0.0016177144134417176,
          "391": -0.020475143566727638,
          "392": -0.02680063620209694,
          "393": 0.06093288213014603,
          "394": 0.023654688149690628,
          "395": 0.0671660453081131,
          "396": 0.00011883184197358787,
          "397": -0.07925215363502502,
          "398": 0.04361243546009064,
          "399": -0.05787373334169388
        }
      },
      "bias": {
        "rows": 20,
        "columns": 1,
        "weights": {
          "0": 0,
          "1": 0,
          "2": 0,
          "3": 0,
          "4": 0,
          "5": 0,
          "6": 0,
          "7": 0,
          "8": 0,
          "9": 0,
          "10": 0,
          "11": 0,
          "12": 0,
          "13": 0,
          "14": 0,
          "15": 0,
          "16": 0,
          "17": 0,
          "18": 0,
          "19": 0
        }
      }
    }
  ],
  "outputConnector": {
    "rows": 7,
    "columns": 20,
    "weights": {
      "0": 0.0737529918551445,
      "1": -0.009582950733602047,
      "2": -0.027898063883185387,
      "3": 0.042424704879522324,
      "4": 0.0698656365275383,
      "5": -0.016732174903154373,
      "6": -0.05598419904708862,
      "7": 0.0015588431851938367,
      "8": 0.06770523637533188,
      "9": 0.07611192017793655,
      "10": -0.07899263501167297,
      "11": 0.07963991165161133,
      "12": 0.07639102637767792,
      "13": 0.03333199396729469,
      "14": 0.04857105389237404,
      "15": -0.017072254791855812,
      "16": -0.0529499314725399,
      "17": 0.07588090747594833,
      "18": 0.013775523751974106,
      "19": -0.07819632440805435,
      "20": 0.001134969643317163,
      "21": 0.0624709390103817,
      "22": -0.035481225699186325,
      "23": -0.018657343462109566,
      "24": 0.04005993902683258,
      "25": 0.046993207186460495,
      "26": -0.0006259643123485148,
      "27": 0.024548759683966637,
      "28": -0.0386040098965168,
      "29": 0.023013686761260033,
      "30": -0.018888968974351883,
      "31": 0.034795813262462616,
      "32": -0.05967387557029724,
      "33": -0.04089948534965515,
      "34": 0.017659710720181465,
      "35": 0.0009653873858042061,
      "36": 0.018772130832076073,
      "37": 0.0679040178656578,
      "38": -0.033227838575839996,
      "39": 0.01338656060397625,
      "40": 0.005625796038657427,
      "41": 0.012034709565341473,
      "42": -0.06972211599349976,
      "43": 0.063760906457901,
      "44": -0.023454539477825165,
      "45": 0.06001124158501625,
      "46": 0.0026011657901108265,
      "47": 0.007134916260838509,
      "48": 0.01111405435949564,
      "49": -0.04906795173883438,
      "50": 0.023201091215014458,
      "51": -0.07568398118019104,
      "52": -0.040135711431503296,
      "53": -0.07612372934818268,
      "54": 0.012262556701898575,
      "55": -0.013576681725680828,
      "56": 0.03349567577242851,
      "57": 0.044959552586078644,
      "58": -0.058001961559057236,
      "59": -0.02596939168870449,
      "60": 0.04785212501883507,
      "61": 0.0399179682135582,
      "62": 0.0010130396112799644,
      "63": -0.005684599280357361,
      "64": -0.025824153795838356,
      "65": 0.007323880679905415,
      "66": -0.0037503379862755537,
      "67": 0.014783177524805069,
      "68": 0.054240383207798004,
      "69": -0.06592705100774765,
      "70": 0.07477016746997833,
      "71": 0.023319171741604805,
      "72": -0.015359998680651188,
      "73": -0.005520320497453213,
      "74": 0.012893607839941978,
      "75": 0.0761304423213005,
      "76": 0.07615525275468826,
      "77": -0.003908053040504456,
      "78": -0.042584531009197235,
      "79": -0.06082849204540253,
      "80": -0.07117483764886856,
      "81": 0.07071992754936218,
      "82": 0.06611786037683487,
      "83": -0.0007201828993856907,
      "84": 0.06604346632957458,
      "85": -0.05747409909963608,
      "86": 0.019298888742923737,
      "87": 0.0747198760509491,
      "88": -0.006432230584323406,
      "89": -0.011536103673279285,
      "90": 0.05982673913240433,
      "91": 0.0716540589928627,
      "92": -0.05813869461417198,
      "93": 0.0652601569890976,
      "94": -0.05758950486779213,
      "95": -0.04564128816127777,
      "96": -0.04220699518918991,
      "97": 0.008975266478955746,
      "98": 0.05900927633047104,
      "99": 0.05472319573163986,
      "100": 0.0012748007429763675,
      "101": 0.018317928537726402,
      "102": -0.0776023119688034,
      "103": -0.0228476133197546,
      "104": 0.006436656229197979,
      "105": -0.010439935140311718,
      "106": -0.05628703534603119,
      "107": -0.01891203597187996,
      "108": 0.06828616559505463,
      "109": 0.052151165902614594,
      "110": -0.05869632586836815,
      "111": 0.04635369032621384,
      "112": -0.04739069938659668,
      "113": 0.06950484216213226,
      "114": -0.014399495907127857,
      "115": 0.015609342604875565,
      "116": 0.029040804132819176,
      "117": -0.009496686980128288,
      "118": 0.011228123679757118,
      "119": 0.0273476243019104,
      "120": -0.055892184376716614,
      "121": -0.015003510750830173,
      "122": 0.07046173512935638,
      "123": 0.06244824454188347,
      "124": -0.07421334832906723,
      "125": 0.009377261623740196,
      "126": 0.02618873305618763,
      "127": -0.03455338254570961,
      "128": 0.06177246570587158,
      "129": 0.06276427954435349,
      "130": -0.030632080510258675,
      "131": -0.038023509085178375,
      "132": -0.007917585782706738,
      "133": 0.030146874487400055,
      "134": -0.07455359399318695,
      "135": 0.019115859642624855,
      "136": -0.0035531073808670044,
      "137": 0.05708808824419975,
      "138": 0.01143649686127901,
      "139": 0.06794559955596924
    }
  },
  "output": {
    "rows": 7,
    "columns": 1,
    "weights": {
      "0": 0,
      "1": 0,
      "2": 0,
      "3": 0,
      "4": 0,
      "5": 0,
      "6": 0
    }
  }
}